


    // !!! This file is generated using emlearn !!!

    #include <eml_trees.h>
    

static const EmlTreesNode testModel_nodes[771] = {
  { 2, 3, 1, 458 },
  { 2, -8, 1, 264 },
  { 0, 8, 1, 203 },
  { 1, 1, 1, 133 },
  { 2, -34, 1, 16 },
  { 0, 0, 1, 9 },
  { 1, -10, 1, 3 },
  { 1, -13, -1, 1 },
  { 0, -7, -1, -2 },
  { 0, -8, 1, 2 },
  { 0, -11, -3, -2 },
  { 2, -36, 1, -1 },
  { 1, -6, 1, -3 },
  { 0, -2, -2, -3 },
  { 2, -37, 1, 3 },
  { 1, -6, 1, -1 },
  { 0, 5, -2, -1 },
  { 0, 6, 1, -3 },
  { 2, -34, -1, 1 },
  { 2, -34, -2, -1 },
  { 2, -22, 1, 32 },
  { 0, 0, 1, 9 },
  { 0, -3, 1, 7 },
  { 1, -2, 1, 4 },
  { 1, -5, 1, -2 },
  { 1, -6, 1, -1 },
  { 0, -6, -2, -1 },
  { 0, -6, 1, -3 },
  { 0, -10, -3, -2 },
  { 2, -32, -3, -2 },
  { 2, -29, 1, 9 },
  { 2, -33, 1, 2 },
  { 0, 5, -2, -3 },
  { 0, 3, 1, 3 },
  { 2, -32, -1, 1 },
  { 2, -29, -3, -2 },
  { 1, 0, 1, -2 },
  { 0, 7, -1, 1 },
  { 2, -31, -2, -1 },
  { 0, 0, -3, 1 },
  { 0, 1, -2, 1 },
  { 1, -1, 1, 8 },
  { 2, -23, 1, -3 },
  { 2, -25, 1, 5 },
  { 0, 5, 1, -3 },
  { 1, -4, -3, 1 },
  { 1, -3, -2, 1 },
  { 0, 3, -2, -3 },
  { 2, -24, -1, -2 },
  { 1, 0, -2, 1 },
  { 2, -26, -2, 1 },
  { 2, -24, -3, -2 },
  { 1, 0, 1, 62 },
  { 0, -3, 1, 18 },
  { 0, -11, 1, 2 },
  { 0, -14, -3, -1 },
  { 1, -2, 1, 7 },
  { 2, -9, 1, -3 },
  { 0, -9, 1, 2 },
  { 2, -18, -2, -3 },
  { 1, -11, -1, 1 },
  { 0, -8, 1, -2 },
  { 0, -8, -2, -1 },
  { 0, -4, 1, 6 },
  { 2, -16, -3, 1 },
  { 1, -2, -3, 1 },
  { 2, -12, 1, -1 },
  { 0, -8, -2, 1 },
  { 1, -1, -1, -3 },
  { 0, -3, -2, 1 },
  { 0, -3, -3, -2 },
  { 0, -1, 1, 5 },
  { 2, -12, 1, -3 },
  { 2, -13, 1, -1 },
  { 0, -2, 1, -3 },
  { 2, -15, -2, -3 },
  { 0, 0, 1, 7 },
  { 2, -12, 1, -1 },
  { 1, -4, 1, 2 },
  { 0, 0, -3, -2 },
  { 1, -2, -1, 1 },
  { 0, 0, -2, 1 },
  { 2, -20, -3, -1 },
  { 2, -22, -1, 1 },
  { 1, -6, 1, 5 },
  { 2, -9, 1, -2 },
  { 2, -17, -3, 1 },
  { 1, -7, 1, -3 },
  { 2, -10, -2, -3 },
  { 2, -14, 1, 12 },
  { 2, -16, 1, -1 },
  { 1, -2, 1, 6 },
  { 0, 6, 1, -3 },
  { 2, -18, 1, -1 },
  { 2, -19, 1, 2 },
  { 1, -5, -3, -1 },
  { 0, 3, -2, -3 },
  { 1, -1, 1, 2 },
  { 0, 0, -3, -2 },
  { 2, -16, -3, 1 },
  { 1, 0, -2, -1 },
  { 1, -6, -2, 1 },
  { 2, -13, 1, 3 },
  { 0, 2, -3, 1 },
  { 0, 6, -2, -3 },
  { 1, 0, 1, -2 },
  { 2, -9, 1, 6 },
  { 1, -5, -1, 1 },
  { 0, 6, 1, 3 },
  { 2, -10, -3, 1 },
  { 2, -10, -1, -3 },
  { 2, -11, -1, -3 },
  { 0, 3, 1, -1 },
  { 0, 2, -3, -4 },
  { 1, 0, 1, 4 },
  { 2, -10, 1, -3 },
  { 0, -2, 1, -2 },
  { 2, -18, -2, -1 },
  { 2, -9, 1, 15 },
  { 2, -11, 1, 10 },
  { 2, -13, 1, 8 },
  { 0, 1, 1, 6 },
  { 0, 0, 1, -2 },
  { 1, 1, 1, -1 },
  { 2, -20, -1, 1 },
  { 0, -4, -2, 1 },
  { 2, -15, -3, -2 },
  { 1, 0, -1, -3 },
  { 1, 1, -2, -3 },
  { 0, -3, -1, 1 },
  { 0, 5, 1, -1 },
  { 2, -11, 1, -3 },
  { 0, 2, -3, -1 },
  { 1, 0, -2, 1 },
  { 1, 0, -3, 1 },
  { 0, 2, -2, -3 },
  { 0, -8, 1, 4 },
  { 2, -41, -1, 1 },
  { 1, 5, -3, 1 },
  { 1, 5, -2, -3 },
  { 1, 22, 1, -3 },
  { 2, -59, -3, 1 },
  { 2, -17, 1, 32 },
  { 0, 5, 1, 22 },
  { 1, 4, 1, 13 },
  { 1, 4, 1, 9 },
  { 0, -2, 1, 2 },
  { 2, -21, -2, -1 },
  { 0, 1, -2, 1 },
  { 1, 2, 1, 3 },
  { 1, 2, 1, -2 },
  { 0, 3, -2, -3 },
  { 2, -27, -2, 1 },
  { 1, 2, -1, -3 },
  { 1, 4, 1, -1 },
  { 0, -1, -3, 1 },
  { 1, 4, -3, -2 },
  { 0, -3, 1, 4 },
  { 1, 6, -2, 1 },
  { 1, 8, 1, -2 },
  { 0, -6, -3, -1 },
  { 2, -34, 1, 2 },
  { 2, -35, -2, -3 },
  { 0, 5, -2, 1 },
  { 0, 5, -1, -2 },
  { 2, -37, -1, 1 },
  { 2, -20, 1, 7 },
  { 1, 2, 1, 2 },
  { 1, 1, -2, -3 },
  { 2, -27, 1, -2 },
  { 0, 7, -2, 1 },
  { 1, 7, 1, -3 },
  { 0, 8, -1, -2 },
  { 2, -17, -3, -2 },
  { 0, 0, 1, 13 },
  { 2, -10, 1, 7 },
  { 2, -14, 1, 3 },
  { 2, -14, 1, -2 },
  { 2, -15, -2, -1 },
  { 0, -4, -3, 1 },
  { 0, -1, -1, 1 },
  { 2, -11, -3, -1 },
  { 1, 2, 1, 2 },
  { 1, 2, -2, -1 },
  { 0, -1, 1, -3 },
  { 2, -10, -2, 1 },
  { 2, -9, -3, -2 },
  { 2, -16, 1, 2 },
  { 1, 2, -2, -1 },
  { 0, 5, 1, 9 },
  { 1, 2, 1, 2 },
  { 0, 1, -3, -2 },
  { 1, 10, 1, 5 },
  { 1, 4, 1, -2 },
  { 1, 4, 1, -1 },
  { 1, 3, -2, 1 },
  { 2, -12, -1, -2 },
  { 0, 3, -2, -1 },
  { 1, 4, 1, 4 },
  { 1, 2, -2, 1 },
  { 2, -14, 1, -1 },
  { 1, 2, -1, -3 },
  { 1, 7, 1, -1 },
  { 0, 5, 1, -2 },
  { 1, 5, -2, -3 },
  { 1, 19, 1, -3 },
  { 2, -23, 1, 38 },
  { 2, -62, 1, 2 },
  { 0, 27, -3, -1 },
  { 1, -2, 1, 26 },
  { 0, 16, 1, 21 },
  { 1, -4, 1, 15 },
  { 0, 16, 1, -3 },
  { 1, -9, 1, 11 },
  { 1, -10, 1, 8 },
  { 2, -50, -1, 1 },
  { 2, -40, 1, 4 },
  { 1, -13, 1, -1 },
  { 2, -44, -3, 1 },
  { 2, -42, -1, -3 },
  { 2, -33, -1, 1 },
  { 2, -31, -3, -1 },
  { 0, 11, 1, -3 },
  { 1, -10, -1, -3 },
  { 2, -29, -1, 1 },
  { 2, -27, -2, -1 },
  { 0, 13, 1, 3 },
  { 0, 12, 1, -1 },
  { 2, -29, -3, -1 },
  { 1, -4, -3, 1 },
  { 0, 14, -1, -3 },
  { 0, 23, 1, 3 },
  { 1, -13, 1, -1 },
  { 1, -15, -1, -2 },
  { 0, 24, -3, -1 },
  { 0, 10, 1, 4 },
  { 0, 9, -1, 1 },
  { 1, 3, 1, -2 },
  { 1, 2, -2, -1 },
  { 0, 19, 1, 3 },
  { 1, 2, -1, 1 },
  { 1, 2, -3, -1 },
  { 2, -30, 1, -3 },
  { 0, 20, -2, -1 },
  { 1, 4, 1, 19 },
  { 1, -3, 1, 6 },
  { 2, -13, 1, 3 },
  { 2, -21, 1, -3 },
  { 1, -4, -1, -3 },
  { 2, -9, -5, 1 },
  { 2, -9, -1, -3 },
  { 2, -15, 1, 6 },
  { 2, -19, 1, -1 },
  { 0, 14, 1, -1 },
  { 2, -19, -2, 1 },
  { 2, -19, -3, 1 },
  { 2, -19, -2, -3 },
  { 1, -1, -5, 1 },
  { 0, 9, -1, 1 },
  { 1, 0, -2, 1 },
  { 1, 3, 1, -2 },
  { 1, 1, 1, -3 },
  { 2, -11, -3, -2 },
  { 2, -19, 1, -2 },
  { 2, -20, -2, -3 },
  { 2, 0, 1, 137 },
  { 1, -3, 1, 27 },
  { 0, 2, 1, 16 },
  { 0, 0, 1, 12 },
  { 1, -4, 1, -4 },
  { 0, -1, 1, 9 },
  { 0, -2, 1, -6 },
  { 1, -7, -6, 1 },
  { 1, -4, 1, -6 },
  { 0, -11, -1, 1 },
  { 0, -2, 1, -1 },
  { 1, -6, -3, 1 },
  { 2, -3, -4, 1 },
  { 0, -4, -4, -3 },
  { 0, 0, -3, -4 },
  { 0, 1, -1, 1 },
  { 0, 1, -3, 1 },
  { 2, -7, -1, -6 },
  { 2, -3, 1, 8 },
  { 0, 9, 1, 3 },
  { 0, 3, 1, -3 },
  { 2, -5, -2, -3 },
  { 2, -8, 1, 2 },
  { 0, 14, -5, -3 },
  { 1, -8, 1, -5 },
  { 2, -5, -5, -4 },
  { 1, -7, 1, -4 },
  { 2, -1, -6, -5 },
  { 1, 1, 1, 79 },
  { 0, -1, 1, 24 },
  { 2, -3, 1, 8 },
  { 0, -4, 1, 2 },
  { 0, -6, -3, -4 },
  { 2, -7, -3, 1 },
  { 2, -4, 1, -3 },
  { 0, -3, -1, 1 },
  { 0, -3, 1, -2 },
  { 1, 0, -3, -2 },
  { 0, -6, 1, 3 },
  { 1, -1, -4, 1 },
  { 2, -1, -1, -3 },
  { 0, -5, -2, 1 },
  { 0, -2, 1, -2 },
  { 0, -2, 1, -1 },
  { 0, -2, 1, 8 },
  { 1, 0, -1, 1 },
  { 1, 0, -4, 1 },
  { 0, -3, 1, 4 },
  { 2, -1, 1, -2 },
  { 1, 0, -1, 1 },
  { 1, 0, -6, -1 },
  { 0, -2, -3, -1 },
  { 1, 0, -3, -2 },
  { 2, -1, 1, 46 },
  { 0, 0, 1, 11 },
  { 1, -2, 1, 2 },
  { 1, -3, -3, -1 },
  { 1, 0, 1, 3 },
  { 1, -1, 1, -3 },
  { 1, -1, -3, -1 },
  { 1, 0, -2, 1 },
  { 0, -1, 1, 2 },
  { 2, -3, -3, -1 },
  { 0, 0, -3, 1 },
  { 2, -2, -1, -3 },
  { 0, 0, 1, 6 },
  { 2, -5, -2, 1 },
  { 2, -3, -3, 1 },
  { 1, 0, -6, 1 },
  { 0, 0, -2, 1 },
  { 1, 0, -2, -1 },
  { 2, -4, 1, 16 },
  { 2, -4, 1, -1 },
  { 2, -5, 1, 12 },
  { 1, 0, 1, -2 },
  { 1, -3, -2, 1 },
  { 1, -2, -3, 1 },
  { 1, -1, 1, 3 },
  { 0, 1, 1, -2 },
  { 1, -1, -6, -1 },
  { 0, 6, 1, -2 },
  { 2, -6, 1, -3 },
  { 0, 2, -1, 1 },
  { 0, 3, -3, 1 },
  { 0, 3, -1, -3 },
  { 0, 3, -2, 1 },
  { 2, -5, -2, -3 },
  { 2, -1, 1, -4 },
  { 1, 0, 1, 3 },
  { 2, -2, -3, 1 },
  { 1, -2, -3, -2 },
  { 1, 0, 1, 2 },
  { 0, 1, -2, -5 },
  { 0, 2, 1, 4 },
  { 0, 0, 1, -3 },
  { 0, 0, 1, -2 },
  { 2, -3, -1, -3 },
  { 1, 0, -1, 1 },
  { 2, -4, -3, -2 },
  { 0, 8, 1, -5 },
  { 1, 0, 1, 5 },
  { 1, 0, 1, 3 },
  { 2, -1, 1, -3 },
  { 0, 1, -6, -3 },
  { 0, 0, -4, -1 },
  { 2, -1, 1, -3 },
  { 2, -1, -3, -2 },
  { 0, -5, 1, 2 },
  { 1, 2, -2, -3 },
  { 2, -6, 1, 8 },
  { 0, 0, 1, 3 },
  { 0, -1, -1, 1 },
  { 0, 0, -2, -1 },
  { 2, -7, -3, 1 },
  { 2, -7, -1, 1 },
  { 1, 2, 1, -3 },
  { 0, 4, -4, -1 },
  { 0, 6, 1, 19 },
  { 1, 3, 1, 14 },
  { 2, -2, 1, 5 },
  { 1, 2, 1, 3 },
  { 2, -4, -2, 1 },
  { 1, 2, -3, -2 },
  { 0, -3, -6, -3 },
  { 0, -1, -1, 1 },
  { 1, 2, 1, 6 },
  { 2, -1, -1, 1 },
  { 2, -1, -4, 1 },
  { 2, 0, 1, -1 },
  { 1, 1, -3, 1 },
  { 1, 2, -2, -3 },
  { 2, -2, -3, -2 },
  { 2, -4, 1, -2 },
  { 2, -4, 1, -1 },
  { 0, -2, 1, -2 },
  { 0, -3, -1, -3 },
  { 2, -4, -3, -5 },
  { 1, -3, 1, 16 },
  { 1, -6, 1, 6 },
  { 0, -9, 1, 2 },
  { 1, -8, -2, -3 },
  { 1, -15, -2, 1 },
  { 0, 9, -4, 1 },
  { 1, -9, -4, -5 },
  { 2, 2, 1, 8 },
  { 0, -8, -4, 1 },
  { 1, -6, -6, 1 },
  { 0, -6, -6, 1 },
  { 1, -5, -1, 1 },
  { 1, -4, 1, -6 },
  { 0, -1, -4, 1 },
  { 2, 1, -6, -4 },
  { 2, 2, -3, -5 },
  { 2, 0, 1, 3 },
  { 1, 2, 1, -2 },
  { 1, 1, -3, -3 },
  { 1, 1, 1, 34 },
  { 0, 2, 1, 28 },
  { 0, -4, 1, 4 },
  { 0, -7, -4, 1 },
  { 1, -1, -6, 1 },
  { 0, -4, -1, -2 },
  { 1, 0, 1, 17 },
  { 2, 2, 1, -3 },
  { 2, 1, 1, 5 },
  { 0, -3, -4, 1 },
  { 1, 0, 1, -4 },
  { 2, 0, 1, -3 },
  { 0, 0, -1, -3 },
  { 0, 1, 1, -2 },
  { 1, -1, 1, 8 },
  { 2, 2, 1, -2 },
  { 1, -3, -1, 1 },
  { 2, 1, -1, 1 },
  { 2, 1, -4, 1 },
  { 1, -1, 1, -4 },
  { 1, -2, 1, -3 },
  { 1, -3, -3, -4 },
  { 0, -1, -1, -2 },
  { 0, 1, 1, 5 },
  { 2, 0, 1, -3 },
  { 2, 0, 1, -4 },
  { 1, 0, -3, 1 },
  { 1, 0, -1, -3 },
  { 0, 1, -2, -3 },
  { 0, 5, 1, 3 },
  { 2, 0, -6, 1 },
  { 1, 1, -1, -3 },
  { 0, 8, -3, 1 },
  { 2, 2, -4, -5 },
  { 1, 7, 1, 2 },
  { 2, 0, -3, -2 },
  { 0, 1, -6, -1 },
  { 1, 15, 1, 223 },
  { 0, 2, 1, 158 },
  { 2, 18, 1, 86 },
  { 1, -1, 1, 61 },
  { 2, 6, 1, 19 },
  { 0, -1, 1, 15 },
  { 2, 5, 1, 13 },
  { 0, -4, 1, -6 },
  { 0, -4, 1, -4 },
  { 1, -4, 1, 6 },
  { 2, 3, -4, 1 },
  { 2, 4, -6, 1 },
  { 1, -5, 1, -1 },
  { 1, -7, 1, -4 },
  { 0, -10, -4, -6 },
  { 2, 4, -4, 1 },
  { 0, -7, -6, 1 },
  { 2, 4, -4, 1 },
  { 1, -2, -3, -4 },
  { 1, -3, -4, -6 },
  { 2, 3, -4, 1 },
  { 0, 0, -2, 1 },
  { 1, -4, -1, -5 },
  { 1, -9, 1, 12 },
  { 2, 10, 1, 3 },
  { 2, 8, -4, 1 },
  { 1, -14, -1, -6 },
  { 1, -10, 1, 6 },
  { 1, -11, 1, -6 },
  { 0, -2, 1, 2 },
  { 2, 17, -4, -6 },
  { 2, 12, -4, 1 },
  { 2, 16, -6, -4 },
  { 2, 13, 1, -4 },
  { 0, -5, -4, -5 },
  { 0, 0, 1, 25 },
  { 0, -4, 1, 21 },
  { 0, -6, 1, 14 },
  { 1, -5, 1, 7 },
  { 2, 15, 1, 3 },
  { 1, -8, 1, -6 },
  { 1, -8, -6, -4 },
  { 0, -10, -4, 1 },
  { 2, 15, 1, -6 },
  { 2, 15, -6, -4 },
  { 0, -7, 1, -6 },
  { 0, -8, 1, -4 },
  { 1, -4, -4, 1 },
  { 0, -12, -4, 1 },
  { 0, -9, -6, 1 },
  { 0, -8, -4, -6 },
  { 1, -2, 1, -6 },
  { 0, -4, 1, 3 },
  { 2, 10, 1, -4 },
  { 2, 10, -4, -6 },
  { 1, -5, 1, -6 },
  { 1, -7, -6, -4 },
  { 2, 17, 1, -3 },
  { 0, -1, -6, 1 },
  { 0, -1, -4, -6 },
  { 2, 12, -4, 1 },
  { 2, 13, -5, 1 },
  { 2, 15, 1, -6 },
  { 0, 2, -4, -6 },
  { 2, 8, 1, 13 },
  { 0, -6, 1, 4 },
  { 0, -7, -4, 1 },
  { 2, 5, 1, -1 },
  { 2, 4, -4, -3 },
  { 2, 3, -4, 1 },
  { 1, 0, -2, 1 },
  { 2, 3, -3, 1 },
  { 1, 1, 1, -2 },
  { 1, 0, -6, 1 },
  { 2, 7, 1, -2 },
  { 1, 1, -1, 1 },
  { 2, 4, -1, -4 },
  { 0, -5, 1, 6 },
  { 1, 0, -4, 1 },
  { 0, -21, -3, 1 },
  { 1, 1, -6, 1 },
  { 1, 2, -4, 1 },
  { 2, 9, -3, -6 },
  { 2, 15, 1, -6 },
  { 2, 14, 1, -5 },
  { 0, 0, 1, 2 },
  { 2, 14, -3, -2 },
  { 0, 0, -5, -6 },
  { 1, -2, 1, 58 },
  { 0, -4, 1, 20 },
  { 0, -6, 1, 14 },
  { 1, -3, 1, 11 },
  { 0, -7, 1, -4 },
  { 1, -12, 1, 2 },
  { 1, -13, -6, -4 },
  { 1, -9, -6, 1 },
  { 0, -12, -6, 1 },
  { 0, -10, 1, 2 },
  { 1, -3, -4, -6 },
  { 1, -8, 1, 2 },
  { 0, -9, -6, -4 },
  { 0, -7, -6, -4 },
  { 2, 28, -4, 1 },
  { 0, -10, -6, -4 },
  { 2, 43, 1, -5 },
  { 2, 23, 1, -6 },
  { 2, 22, -6, 1 },
  { 0, -5, -4, 1 },
  { 2, 23, -6, -4 },
  { 0, -3, 1, 6 },
  { 0, -4, 1, 4 },
  { 0, -4, -4, 1 },
  { 0, -4, 1, -6 },
  { 2, 30, -5, -6 },
  { 1, -4, -4, -5 },
  { 2, 21, -6, 1 },
  { 2, 25, 1, 10 },
  { 2, 22, 1, 4 },
  { 2, 21, -4, 1 },
  { 1, -10, 1, -6 },
  { 0, 0, -5, -6 },
  { 2, 23, 1, 3 },
  { 1, -10, -4, 1 },
  { 1, -7, -5, -4 },
  { 2, 24, -6, 1 },
  { 1, -5, -4, -6 },
  { 0, -1, 1, 4 },
  { 2, 45, 1, -3 },
  { 2, 30, -6, 1 },
  { 2, 37, -5, -6 },
  { 0, 0, 1, 4 },
  { 0, 0, 1, -4 },
  { 0, 0, 1, -5 },
  { 2, 35, -4, -6 },
  { 1, -16, 1, 4 },
  { 1, -17, 1, -5 },
  { 1, -22, 1, -4 },
  { 2, 47, -6, -4 },
  { 2, 27, 1, 2 },
  { 2, 26, -6, -4 },
  { 1, -14, 1, 2 },
  { 2, 49, -5, -6 },
  { 1, -2, 1, 3 },
  { 0, 2, -6, 1 },
  { 1, -9, -4, -6 },
  { 1, -2, -5, -6 },
  { 0, -39, -1, 1 },
  { 1, 7, 1, 10 },
  { 0, -24, -5, 1 },
  { 2, 23, 1, 6 },
  { 2, 21, 1, 3 },
  { 2, 19, 1, -6 },
  { 1, 0, -6, -1 },
  { 0, -2, 1, -5 },
  { 1, 0, -4, -6 },
  { 1, -1, 1, -6 },
  { 0, -1, -6, -5 },
  { 1, 12, 1, -6 },
  { 0, -9, -6, -5 },
  { 0, 6, 1, 26 },
  { 1, -14, -4, 1 },
  { 1, -5, 1, 14 },
  { 2, 16, 1, 2 },
  { 0, 5, -5, -4 },
  { 2, 45, 1, -5 },
  { 0, 3, -4, 1 },
  { 1, -9, 1, 2 },
  { 1, -11, -6, -3 },
  { 0, 5, 1, 5 },
  { 2, 31, 1, 2 },
  { 0, 3, -5, -6 },
  { 0, 3, -6, 1 },
  { 0, 5, -4, -6 },
  { 0, 5, -4, 1 },
  { 2, 31, -5, -6 },
  { 1, -3, -5, 1 },
  { 2, 10, -4, 1 },
  { 1, -2, -4, 1 },
  { 2, 17, -6, 1 },
  { 2, 23, 1, 2 },
  { 1, 10, -5, -4 },
  { 2, 34, 1, 3 },
  { 1, 4, -6, 1 },
  { 0, 6, -5, -6 },
  { 0, 5, -5, -4 },
  { 2, 29, 1, 20 },
  { 0, 11, 1, 16 },
  { 2, 11, -5, 1 },
  { 1, -10, 1, 3 },
  { 1, -17, -5, 1 },
  { 0, 11, -4, -6 },
  { 2, 13, -6, 1 },
  { 2, 27, 1, -6 },
  { 0, 11, 1, 7 },
  { 1, -1, 1, -5 },
  { 1, -3, 1, 3 },
  { 0, 9, 1, -5 },
  { 2, 20, -6, -5 },
  { 2, 18, -6, 1 },
  { 2, 22, -5, -6 },
  { 0, 11, 1, -5 },
  { 1, 0, -4, -6 },
  { 1, -18, -4, 1 },
  { 2, 5, 1, -5 },
  { 1, -8, -4, -5 },
  { 1, -9, 1, 9 },
  { 2, 64, 1, -4 },
  { 2, 41, 1, -5 },
  { 2, 40, 1, -6 },
  { 1, -11, 1, 3 },
  { 2, 36, -5, 1 },
  { 2, 37, -6, -5 },
  { 0, 11, -5, 1 },
  { 1, -10, -4, -6 },
  { 2, 40, 1, 8 },
  { 2, 36, 1, -5 },
  { 2, 35, 1, -4 },
  { 0, 8, 1, 2 },
  { 1, -3, -4, -5 },
  { 0, 11, -6, 1 },
  { 0, 13, -5, 1 },
  { 0, 29, -6, -5 },
  { 0, 22, -6, -4 },
  { 2, 5, 1, 2 },
  { 0, -14, -6, -3 },
  { 0, -16, 1, 32 },
  { 2, 35, 1, 14 },
  { 0, -16, 1, -6 },
  { 1, 53, 1, 11 },
  { 0, -19, 1, 4 },
  { 2, 20, 1, -5 },
  { 2, 19, -5, 1 },
  { 0, -22, -4, -6 },
  { 0, -18, -4, 1 },
  { 2, 30, 1, -5 },
  { 1, 39, -4, 1 },
  { 2, 29, 1, -4 },
  { 1, 47, -5, 1 },
  { 2, 24, -5, -4 },
  { 1, 58, -4, -5 },
  { 0, -38, -6, 1 },
  { 2, 37, 1, 5 },
  { 1, 49, 1, -4 },
  { 1, 47, 1, -6 },
  { 0, -18, -5, 1 },
  { 1, 42, -4, -5 },
  { 0, -23, -5, 1 },
  { 1, 46, 1, -5 },
  { 0, -21, 1, 2 },
  { 1, 43, -4, -6 },
  { 1, 41, 1, 4 },
  { 2, 37, -5, 1 },
  { 1, 36, 1, -4 },
  { 1, 34, -4, -6 },
  { 0, -18, 1, -5 },
  { 1, 43, -5, 1 },
  { 1, 45, -6, -4 },
  { 0, -16, -6, 1 },
  { 1, 46, 1, 47 },
  { 0, 2, 1, 42 },
  { 1, 46, 1, -4 },
  { 0, -12, 1, 20 },
  { 0, -13, 1, 15 },
  { 2, 31, 1, 7 },
  { 1, 40, -6, 1 },
  { 1, 43, -5, 1 },
  { 2, 9, -5, 1 },
  { 0, -14, 1, -5 },
  { 1, 44, -6, 1 },
  { 2, 24, -4, -6 },
  { 2, 58, 1, -4 },
  { 1, 37, 1, -5 },
  { 1, 36, 1, 4 },
  { 1, 33, 1, -5 },
  { 1, 26, -5, 1 },
  { 2, 39, -5, -6 },
  { 0, -15, -4, -6 },
  { 0, -12, 1, 2 },
  { 2, 43, -6, -4 },
  { 1, 38, -5, 1 },
  { 1, 44, -4, -5 },
  { 0, -8, 1, 9 },
  { 2, 55, 1, 7 },
  { 2, 39, 1, 3 },
  { 1, 34, 1, -5 },
  { 2, 29, -4, -5 },
  { 2, 40, -6, 1 },
  { 1, 44, -5, 1 },
  { 1, 45, -6, -5 },
  { 2, 59, -4, -5 },
  { 0, -7, 1, 3 },
  { 1, 43, -6, 1 },
  { 1, 45, -5, -6 },
  { 0, -5, -5, 1 },
  { 0, -1, 1, -5 },
  { 1, 45, 1, -6 },
  { 0, -4, -4, 1 },
  { 0, -2, 1, -4 },
  { 1, 43, 1, -4 },
  { 0, -4, 1, -5 },
  { 1, 30, -5, -6 },
  { 2, 28, -4, 1 },
  { 2, 33, -5, 1 },
  { 0, 5, 1, -6 },
  { 1, 42, -5, -6 },
  { 2, 10, -6, 1 },
  { 0, -12, -5, 1 },
  { 0, -11, -6, 1 },
  { 0, -6, 1, -5 },
  { 0, -7, 1, -6 },
  { 2, 51, 1, -6 },
  { 0, -10, 1, -5 },
  { 0, -11, -5, -6 } 
};

static const int32_t testModel_tree_roots[1] = { 0 };

static const uint8_t testModel_leaves[6] = { 1, 0, 2, 3, 5, 4 };

EmlTrees testModel = {
        771,
        (EmlTreesNode *)(testModel_nodes),	  
        1,
        (int32_t *)(testModel_tree_roots),
        6,
        (uint8_t *)(testModel_leaves),
        0,
        3,
        6,
    };

static inline int32_t testModel_tree_0(const int16_t *features, int32_t features_length) {
          if (features[2] < 3) {
              if (features[2] < -8) {
                  if (features[0] < 8) {
                      if (features[1] < 1) {
                          if (features[2] < -34) {
                              if (features[0] < 0) {
                                  if (features[1] < -10) {
                                      if (features[1] < -13) {
                                          return 1;
                                      } else {
                                          if (features[0] < -7) {
                                              return 1;
                                          } else {
                                              return 0;
                                          }
                                      }
                                  } else {
                                      if (features[0] < -8) {
                                          if (features[0] < -11) {
                                              return 2;
                                          } else {
                                              return 0;
                                          }
                                      } else {
                                          if (features[2] < -36) {
                                              if (features[1] < -6) {
                                                  if (features[0] < -2) {
                                                      return 0;
                                                  } else {
                                                      return 2;
                                                  }
                                              } else {
                                                  return 2;
                                              }
                                          } else {
                                              return 1;
                                          }
                                      }
                                  }
                              } else {
                                  if (features[2] < -37) {
                                      if (features[1] < -6) {
                                          if (features[0] < 5) {
                                              return 0;
                                          } else {
                                              return 1;
                                          }
                                      } else {
                                          return 1;
                                      }
                                  } else {
                                      if (features[0] < 6) {
                                          if (features[2] < -34) {
                                              return 1;
                                          } else {
                                              if (features[2] < -34) {
                                                  return 0;
                                              } else {
                                                  return 1;
                                              }
                                          }
                                      } else {
                                          return 2;
                                      }
                                  }
                              }
                          } else {
                              if (features[2] < -22) {
                                  if (features[0] < 0) {
                                      if (features[0] < -3) {
                                          if (features[1] < -2) {
                                              if (features[1] < -5) {
                                                  if (features[1] < -6) {
                                                      if (features[0] < -6) {
                                                          return 0;
                                                      } else {
                                                          return 1;
                                                      }
                                                  } else {
                                                      return 1;
                                                  }
                                              } else {
                                                  return 0;
                                              }
                                          } else {
                                              if (features[0] < -6) {
                                                  if (features[0] < -10) {
                                                      return 2;
                                                  } else {
                                                      return 0;
                                                  }
                                              } else {
                                                  return 2;
                                              }
                                          }
                                      } else {
                                          if (features[2] < -32) {
                                              return 2;
                                          } else {
                                              return 0;
                                          }
                                      }
                                  } else {
                                      if (features[2] < -29) {
                                          if (features[2] < -33) {
                                              if (features[0] < 5) {
                                                  return 0;
                                              } else {
                                                  return 2;
                                              }
                                          } else {
                                              if (features[0] < 3) {
                                                  if (features[2] < -32) {
                                                      return 1;
                                                  } else {
                                                      if (features[2] < -29) {
                                                          return 2;
                                                      } else {
                                                          return 0;
                                                      }
                                                  }
                                              } else {
                                                  if (features[1] < 0) {
                                                      if (features[0] < 7) {
                                                          return 1;
                                                      } else {
                                                          if (features[2] < -31) {
                                                              return 0;
                                                          } else {
                                                              return 1;
                                                          }
                                                      }
                                                  } else {
                                                      return 0;
                                                  }
                                              }
                                          }
                                      } else {
                                          if (features[0] < 0) {
                                              return 2;
                                          } else {
                                              if (features[0] < 1) {
                                                  return 0;
                                              } else {
                                                  if (features[1] < -1) {
                                                      if (features[2] < -23) {
                                                          if (features[2] < -25) {
                                                              if (features[0] < 5) {
                                                                  if (features[1] < -4) {
                                                                      return 2;
                                                                  } else {
                                                                      if (features[1] < -3) {
                                                                          return 0;
                                                                      } else {
                                                                          if (features[0] < 3) {
                                                                              return 0;
                                                                          } else {
                                                                              return 2;
                                                                          }
                                                                      }
                                                                  }
                                                              } else {
                                                                  return 2;
                                                              }
                                                          } else {
                                                              if (features[2] < -24) {
                                                                  return 1;
                                                              } else {
                                                                  return 0;
                                                              }
                                                          }
                                                      } else {
                                                          return 2;
                                                      }
                                                  } else {
                                                      if (features[1] < 0) {
                                                          return 0;
                                                      } else {
                                                          if (features[2] < -26) {
                                                              return 0;
                                                          } else {
                                                              if (features[2] < -24) {
                                                                  return 2;
                                                              } else {
                                                                  return 0;
                                                              }
                                                          }
                                                      }
                                                  }
                                              }
                                          }
                                      }
                                  }
                              } else {
                                  if (features[1] < 0) {
                                      if (features[0] < -3) {
                                          if (features[0] < -11) {
                                              if (features[0] < -14) {
                                                  return 2;
                                              } else {
                                                  return 1;
                                              }
                                          } else {
                                              if (features[1] < -2) {
                                                  if (features[2] < -9) {
                                                      if (features[0] < -9) {
                                                          if (features[2] < -18) {
                                                              return 0;
                                                          } else {
                                                              return 2;
                                                          }
                                                      } else {
                                                          if (features[1] < -11) {
                                                              return 1;
                                                          } else {
                                                              if (features[0] < -8) {
                                                                  if (features[0] < -8) {
                                                                      return 0;
                                                                  } else {
                                                                      return 1;
                                                                  }
                                                              } else {
                                                                  return 0;
                                                              }
                                                          }
                                                      }
                                                  } else {
                                                      return 2;
                                                  }
                                              } else {
                                                  if (features[0] < -4) {
                                                      if (features[2] < -16) {
                                                          return 2;
                                                      } else {
                                                          if (features[1] < -2) {
                                                              return 2;
                                                          } else {
                                                              if (features[2] < -12) {
                                                                  if (features[0] < -8) {
                                                                      return 0;
                                                                  } else {
                                                                      if (features[1] < -1) {
                                                                          return 1;
                                                                      } else {
                                                                          return 2;
                                                                      }
                                                                  }
                                                              } else {
                                                                  return 1;
                                                              }
                                                          }
                                                      }
                                                  } else {
                                                      if (features[0] < -3) {
                                                          return 0;
                                                      } else {
                                                          if (features[0] < -3) {
                                                              return 2;
                                                          } else {
                                                              return 0;
                                                          }
                                                      }
                                                  }
                                              }
                                          }
                                      } else {
                                          if (features[0] < -1) {
                                              if (features[2] < -12) {
                                                  if (features[2] < -13) {
                                                      if (features[0] < -2) {
                                                          if (features[2] < -15) {
                                                              return 0;
                                                          } else {
                                                              return 2;
                                                          }
                                                      } else {
                                                          return 2;
                                                      }
                                                  } else {
                                                      return 1;
                                                  }
                                              } else {
                                                  return 2;
                                              }
                                          } else {
                                              if (features[0] < 0) {
                                                  if (features[2] < -12) {
                                                      if (features[1] < -4) {
                                                          if (features[0] < 0) {
                                                              return 2;
                                                          } else {
                                                              return 0;
                                                          }
                                                      } else {
                                                          if (features[1] < -2) {
                                                              return 1;
                                                          } else {
                                                              if (features[0] < 0) {
                                                                  return 0;
                                                              } else {
                                                                  if (features[2] < -20) {
                                                                      return 2;
                                                                  } else {
                                                                      return 1;
                                                                  }
                                                              }
                                                          }
                                                      }
                                                  } else {
                                                      return 1;
                                                  }
                                              } else {
                                                  if (features[2] < -22) {
                                                      return 1;
                                                  } else {
                                                      if (features[1] < -6) {
                                                          if (features[2] < -9) {
                                                              if (features[2] < -17) {
                                                                  return 2;
                                                              } else {
                                                                  if (features[1] < -7) {
                                                                      if (features[2] < -10) {
                                                                          return 0;
                                                                      } else {
                                                                          return 2;
                                                                      }
                                                                  } else {
                                                                      return 2;
                                                                  }
                                                              }
                                                          } else {
                                                              return 0;
                                                          }
                                                      } else {
                                                          if (features[2] < -14) {
                                                              if (features[2] < -16) {
                                                                  if (features[1] < -2) {
                                                                      if (features[0] < 6) {
                                                                          if (features[2] < -18) {
                                                                              if (features[2] < -19) {
                                                                                  if (features[1] < -5) {
                                                                                      return 2;
                                                                                  } else {
                                                                                      return 1;
                                                                                  }
                                                                              } else {
                                                                                  if (features[0] < 3) {
                                                                                      return 0;
                                                                                  } else {
                                                                                      return 2;
                                                                                  }
                                                                              }
                                                                          } else {
                                                                              return 1;
                                                                          }
                                                                      } else {
                                                                          return 2;
                                                                      }
                                                                  } else {
                                                                      if (features[1] < -1) {
                                                                          if (features[0] < 0) {
                                                                              return 2;
                                                                          } else {
                                                                              return 0;
                                                                          }
                                                                      } else {
                                                                          if (features[2] < -16) {
                                                                              return 2;
                                                                          } else {
                                                                              if (features[1] < 0) {
                                                                                  return 0;
                                                                              } else {
                                                                                  return 1;
                                                                              }
                                                                          }
                                                                      }
                                                                  }
                                                              } else {
                                                                  return 1;
                                                              }
                                                          } else {
                                                              if (features[1] < -6) {
                                                                  return 0;
                                                              } else {
                                                                  if (features[2] < -13) {
                                                                      if (features[0] < 2) {
                                                                          return 2;
                                                                      } else {
                                                                          if (features[0] < 6) {
                                                                              return 0;
                                                                          } else {
                                                                              return 2;
                                                                          }
                                                                      }
                                                                  } else {
                                                                      if (features[1] < 0) {
                                                                          if (features[2] < -9) {
                                                                              if (features[1] < -5) {
                                                                                  return 1;
                                                                              } else {
                                                                                  if (features[0] < 6) {
                                                                                      if (features[2] < -10) {
                                                                                          return 2;
                                                                                      } else {
                                                                                          if (features[2] < -10) {
                                                                                              return 1;
                                                                                          } else {
                                                                                              return 2;
                                                                                          }
                                                                                      }
                                                                                  } else {
                                                                                      if (features[2] < -11) {
                                                                                          return 1;
                                                                                      } else {
                                                                                          return 2;
                                                                                      }
                                                                                  }
                                                                              }
                                                                          } else {
                                                                              if (features[0] < 3) {
                                                                                  if (features[0] < 2) {
                                                                                      return 2;
                                                                                  } else {
                                                                                      return 3;
                                                                                  }
                                                                              } else {
                                                                                  return 1;
                                                                              }
                                                                          }
                                                                      } else {
                                                                          return 0;
                                                                      }
                                                                  }
                                                              }
                                                          }
                                                      }
                                                  }
                                              }
                                          }
                                      }
                                  } else {
                                      if (features[1] < 0) {
                                          if (features[2] < -10) {
                                              if (features[0] < -2) {
                                                  if (features[2] < -18) {
                                                      return 0;
                                                  } else {
                                                      return 1;
                                                  }
                                              } else {
                                                  return 0;
                                              }
                                          } else {
                                              return 2;
                                          }
                                      } else {
                                          if (features[2] < -9) {
                                              if (features[2] < -11) {
                                                  if (features[2] < -13) {
                                                      if (features[0] < 1) {
                                                          if (features[0] < 0) {
                                                              if (features[1] < 1) {
                                                                  if (features[2] < -20) {
                                                                      return 1;
                                                                  } else {
                                                                      if (features[0] < -4) {
                                                                          return 0;
                                                                      } else {
                                                                          if (features[2] < -15) {
                                                                              return 2;
                                                                          } else {
                                                                              return 0;
                                                                          }
                                                                      }
                                                                  }
                                                              } else {
                                                                  return 1;
                                                              }
                                                          } else {
                                                              return 0;
                                                          }
                                                      } else {
                                                          if (features[1] < 0) {
                                                              return 1;
                                                          } else {
                                                              return 2;
                                                          }
                                                      }
                                                  } else {
                                                      if (features[1] < 1) {
                                                          return 0;
                                                      } else {
                                                          return 2;
                                                      }
                                                  }
                                              } else {
                                                  if (features[0] < -3) {
                                                      return 1;
                                                  } else {
                                                      if (features[0] < 5) {
                                                          if (features[2] < -11) {
                                                              if (features[0] < 2) {
                                                                  return 2;
                                                              } else {
                                                                  return 1;
                                                              }
                                                          } else {
                                                              return 2;
                                                          }
                                                      } else {
                                                          return 1;
                                                      }
                                                  }
                                              }
                                          } else {
                                              if (features[1] < 0) {
                                                  return 0;
                                              } else {
                                                  if (features[1] < 0) {
                                                      return 2;
                                                  } else {
                                                      if (features[0] < 2) {
                                                          return 0;
                                                      } else {
                                                          return 2;
                                                      }
                                                  }
                                              }
                                          }
                                      }
                                  }
                              }
                          }
                      } else {
                          if (features[0] < -8) {
                              if (features[2] < -41) {
                                  return 1;
                              } else {
                                  if (features[1] < 5) {
                                      return 2;
                                  } else {
                                      if (features[1] < 5) {
                                          return 0;
                                      } else {
                                          return 2;
                                      }
                                  }
                              }
                          } else {
                              if (features[1] < 22) {
                                  if (features[2] < -59) {
                                      return 2;
                                  } else {
                                      if (features[2] < -17) {
                                          if (features[0] < 5) {
                                              if (features[1] < 4) {
                                                  if (features[1] < 4) {
                                                      if (features[0] < -2) {
                                                          if (features[2] < -21) {
                                                              return 0;
                                                          } else {
                                                              return 1;
                                                          }
                                                      } else {
                                                          if (features[0] < 1) {
                                                              return 0;
                                                          } else {
                                                              if (features[1] < 2) {
                                                                  if (features[1] < 2) {
                                                                      if (features[0] < 3) {
                                                                          return 0;
                                                                      } else {
                                                                          return 2;
                                                                      }
                                                                  } else {
                                                                      return 0;
                                                                  }
                                                              } else {
                                                                  if (features[2] < -27) {
                                                                      return 0;
                                                                  } else {
                                                                      if (features[1] < 2) {
                                                                          return 1;
                                                                      } else {
                                                                          return 2;
                                                                      }
                                                                  }
                                                              }
                                                          }
                                                      }
                                                  } else {
                                                      if (features[1] < 4) {
                                                          if (features[0] < -1) {
                                                              return 2;
                                                          } else {
                                                              if (features[1] < 4) {
                                                                  return 2;
                                                              } else {
                                                                  return 0;
                                                              }
                                                          }
                                                      } else {
                                                          return 1;
                                                      }
                                                  }
                                              } else {
                                                  if (features[0] < -3) {
                                                      if (features[1] < 6) {
                                                          return 0;
                                                      } else {
                                                          if (features[1] < 8) {
                                                              if (features[0] < -6) {
                                                                  return 2;
                                                              } else {
                                                                  return 1;
                                                              }
                                                          } else {
                                                              return 0;
                                                          }
                                                      }
                                                  } else {
                                                      if (features[2] < -34) {
                                                          if (features[2] < -35) {
                                                              return 0;
                                                          } else {
                                                              return 2;
                                                          }
                                                      } else {
                                                          if (features[0] < 5) {
                                                              return 0;
                                                          } else {
                                                              if (features[0] < 5) {
                                                                  return 1;
                                                              } else {
                                                                  return 0;
                                                              }
                                                          }
                                                      }
                                                  }
                                              }
                                          } else {
                                              if (features[2] < -37) {
                                                  return 1;
                                              } else {
                                                  if (features[2] < -20) {
                                                      if (features[1] < 2) {
                                                          if (features[1] < 1) {
                                                              return 0;
                                                          } else {
                                                              return 2;
                                                          }
                                                      } else {
                                                          if (features[2] < -27) {
                                                              if (features[0] < 7) {
                                                                  return 0;
                                                              } else {
                                                                  if (features[1] < 7) {
                                                                      if (features[0] < 8) {
                                                                          return 1;
                                                                      } else {
                                                                          return 0;
                                                                      }
                                                                  } else {
                                                                      return 2;
                                                                  }
                                                              }
                                                          } else {
                                                              return 0;
                                                          }
                                                      }
                                                  } else {
                                                      if (features[2] < -17) {
                                                          return 2;
                                                      } else {
                                                          return 0;
                                                      }
                                                  }
                                              }
                                          }
                                      } else {
                                          if (features[0] < 0) {
                                              if (features[2] < -10) {
                                                  if (features[2] < -14) {
                                                      if (features[2] < -14) {
                                                          if (features[2] < -15) {
                                                              return 0;
                                                          } else {
                                                              return 1;
                                                          }
                                                      } else {
                                                          return 0;
                                                      }
                                                  } else {
                                                      if (features[0] < -4) {
                                                          return 2;
                                                      } else {
                                                          if (features[0] < -1) {
                                                              return 1;
                                                          } else {
                                                              if (features[2] < -11) {
                                                                  return 2;
                                                              } else {
                                                                  return 1;
                                                              }
                                                          }
                                                      }
                                                  }
                                              } else {
                                                  if (features[1] < 2) {
                                                      if (features[1] < 2) {
                                                          return 0;
                                                      } else {
                                                          return 1;
                                                      }
                                                  } else {
                                                      if (features[0] < -1) {
                                                          if (features[2] < -10) {
                                                              return 0;
                                                          } else {
                                                              if (features[2] < -9) {
                                                                  return 2;
                                                              } else {
                                                                  return 0;
                                                              }
                                                          }
                                                      } else {
                                                          return 2;
                                                      }
                                                  }
                                              }
                                          } else {
                                              if (features[2] < -16) {
                                                  if (features[1] < 2) {
                                                      return 0;
                                                  } else {
                                                      return 1;
                                                  }
                                              } else {
                                                  if (features[0] < 5) {
                                                      if (features[1] < 2) {
                                                          if (features[0] < 1) {
                                                              return 2;
                                                          } else {
                                                              return 0;
                                                          }
                                                      } else {
                                                          if (features[1] < 10) {
                                                              if (features[1] < 4) {
                                                                  if (features[1] < 4) {
                                                                      if (features[1] < 3) {
                                                                          return 0;
                                                                      } else {
                                                                          if (features[2] < -12) {
                                                                              return 1;
                                                                          } else {
                                                                              return 0;
                                                                          }
                                                                      }
                                                                  } else {
                                                                      return 1;
                                                                  }
                                                              } else {
                                                                  return 0;
                                                              }
                                                          } else {
                                                              if (features[0] < 3) {
                                                                  return 0;
                                                              } else {
                                                                  return 1;
                                                              }
                                                          }
                                                      }
                                                  } else {
                                                      if (features[1] < 4) {
                                                          if (features[1] < 2) {
                                                              return 0;
                                                          } else {
                                                              if (features[2] < -14) {
                                                                  if (features[1] < 2) {
                                                                      return 1;
                                                                  } else {
                                                                      return 2;
                                                                  }
                                                              } else {
                                                                  return 1;
                                                              }
                                                          }
                                                      } else {
                                                          if (features[1] < 7) {
                                                              if (features[0] < 5) {
                                                                  if (features[1] < 5) {
                                                                      return 0;
                                                                  } else {
                                                                      return 2;
                                                                  }
                                                              } else {
                                                                  return 0;
                                                              }
                                                          } else {
                                                              return 1;
                                                          }
                                                      }
                                                  }
                                              }
                                          }
                                      }
                                  }
                              } else {
                                  return 2;
                              }
                          }
                      }
                  } else {
                      if (features[1] < 19) {
                          if (features[2] < -23) {
                              if (features[2] < -62) {
                                  if (features[0] < 27) {
                                      return 2;
                                  } else {
                                      return 1;
                                  }
                              } else {
                                  if (features[1] < -2) {
                                      if (features[0] < 16) {
                                          if (features[1] < -4) {
                                              if (features[0] < 16) {
                                                  if (features[1] < -9) {
                                                      if (features[1] < -10) {
                                                          if (features[2] < -50) {
                                                              return 1;
                                                          } else {
                                                              if (features[2] < -40) {
                                                                  if (features[1] < -13) {
                                                                      if (features[2] < -44) {
                                                                          return 2;
                                                                      } else {
                                                                          if (features[2] < -42) {
                                                                              return 1;
                                                                          } else {
                                                                              return 2;
                                                                          }
                                                                      }
                                                                  } else {
                                                                      return 1;
                                                                  }
                                                              } else {
                                                                  if (features[2] < -33) {
                                                                      return 1;
                                                                  } else {
                                                                      if (features[2] < -31) {
                                                                          return 2;
                                                                      } else {
                                                                          return 1;
                                                                      }
                                                                  }
                                                              }
                                                          }
                                                      } else {
                                                          if (features[0] < 11) {
                                                              if (features[1] < -10) {
                                                                  return 1;
                                                              } else {
                                                                  return 2;
                                                              }
                                                          } else {
                                                              return 2;
                                                          }
                                                      }
                                                  } else {
                                                      if (features[2] < -29) {
                                                          return 1;
                                                      } else {
                                                          if (features[2] < -27) {
                                                              return 0;
                                                          } else {
                                                              return 1;
                                                          }
                                                      }
                                                  }
                                              } else {
                                                  return 2;
                                              }
                                          } else {
                                              if (features[0] < 13) {
                                                  if (features[0] < 12) {
                                                      if (features[2] < -29) {
                                                          return 2;
                                                      } else {
                                                          return 1;
                                                      }
                                                  } else {
                                                      return 1;
                                                  }
                                              } else {
                                                  if (features[1] < -4) {
                                                      return 2;
                                                  } else {
                                                      if (features[0] < 14) {
                                                          return 1;
                                                      } else {
                                                          return 2;
                                                      }
                                                  }
                                              }
                                          }
                                      } else {
                                          if (features[0] < 23) {
                                              if (features[1] < -13) {
                                                  if (features[1] < -15) {
                                                      return 1;
                                                  } else {
                                                      return 0;
                                                  }
                                              } else {
                                                  return 1;
                                              }
                                          } else {
                                              if (features[0] < 24) {
                                                  return 2;
                                              } else {
                                                  return 1;
                                              }
                                          }
                                      }
                                  } else {
                                      if (features[0] < 10) {
                                          if (features[0] < 9) {
                                              return 1;
                                          } else {
                                              if (features[1] < 3) {
                                                  if (features[1] < 2) {
                                                      return 0;
                                                  } else {
                                                      return 1;
                                                  }
                                              } else {
                                                  return 0;
                                              }
                                          }
                                      } else {
                                          if (features[0] < 19) {
                                              if (features[1] < 2) {
                                                  return 1;
                                              } else {
                                                  if (features[1] < 2) {
                                                      return 2;
                                                  } else {
                                                      return 1;
                                                  }
                                              }
                                          } else {
                                              if (features[2] < -30) {
                                                  if (features[0] < 20) {
                                                      return 0;
                                                  } else {
                                                      return 1;
                                                  }
                                              } else {
                                                  return 2;
                                              }
                                          }
                                      }
                                  }
                              }
                          } else {
                              if (features[1] < 4) {
                                  if (features[1] < -3) {
                                      if (features[2] < -13) {
                                          if (features[2] < -21) {
                                              if (features[1] < -4) {
                                                  return 1;
                                              } else {
                                                  return 2;
                                              }
                                          } else {
                                              return 2;
                                          }
                                      } else {
                                          if (features[2] < -9) {
                                              return 5;
                                          } else {
                                              if (features[2] < -9) {
                                                  return 1;
                                              } else {
                                                  return 2;
                                              }
                                          }
                                      }
                                  } else {
                                      if (features[2] < -15) {
                                          if (features[2] < -19) {
                                              if (features[0] < 14) {
                                                  if (features[2] < -19) {
                                                      return 0;
                                                  } else {
                                                      if (features[2] < -19) {
                                                          return 2;
                                                      } else {
                                                          if (features[2] < -19) {
                                                              return 0;
                                                          } else {
                                                              return 2;
                                                          }
                                                      }
                                                  }
                                              } else {
                                                  return 1;
                                              }
                                          } else {
                                              return 1;
                                          }
                                      } else {
                                          if (features[1] < -1) {
                                              return 5;
                                          } else {
                                              if (features[0] < 9) {
                                                  return 1;
                                              } else {
                                                  if (features[1] < 0) {
                                                      return 0;
                                                  } else {
                                                      if (features[1] < 3) {
                                                          if (features[1] < 1) {
                                                              if (features[2] < -11) {
                                                                  return 2;
                                                              } else {
                                                                  return 0;
                                                              }
                                                          } else {
                                                              return 2;
                                                          }
                                                      } else {
                                                          return 0;
                                                      }
                                                  }
                                              }
                                          }
                                      }
                                  }
                              } else {
                                  if (features[2] < -19) {
                                      if (features[2] < -20) {
                                          return 0;
                                      } else {
                                          return 2;
                                      }
                                  } else {
                                      return 0;
                                  }
                              }
                          }
                      } else {
                          return 2;
                      }
                  }
              } else {
                  if (features[2] < 0) {
                      if (features[1] < -3) {
                          if (features[0] < 2) {
                              if (features[0] < 0) {
                                  if (features[1] < -4) {
                                      if (features[0] < -1) {
                                          if (features[0] < -2) {
                                              if (features[1] < -7) {
                                                  return 4;
                                              } else {
                                                  if (features[1] < -4) {
                                                      if (features[0] < -11) {
                                                          return 1;
                                                      } else {
                                                          if (features[0] < -2) {
                                                              if (features[1] < -6) {
                                                                  return 2;
                                                              } else {
                                                                  if (features[2] < -3) {
                                                                      return 3;
                                                                  } else {
                                                                      if (features[0] < -4) {
                                                                          return 3;
                                                                      } else {
                                                                          return 2;
                                                                      }
                                                                  }
                                                              }
                                                          } else {
                                                              return 1;
                                                          }
                                                      }
                                                  } else {
                                                      return 4;
                                                  }
                                              }
                                          } else {
                                              return 4;
                                          }
                                      } else {
                                          if (features[0] < 0) {
                                              return 2;
                                          } else {
                                              return 3;
                                          }
                                      }
                                  } else {
                                      return 3;
                                  }
                              } else {
                                  if (features[0] < 1) {
                                      return 1;
                                  } else {
                                      if (features[0] < 1) {
                                          return 2;
                                      } else {
                                          if (features[2] < -7) {
                                              return 1;
                                          } else {
                                              return 4;
                                          }
                                      }
                                  }
                              }
                          } else {
                              if (features[2] < -3) {
                                  if (features[0] < 9) {
                                      if (features[0] < 3) {
                                          if (features[2] < -5) {
                                              return 0;
                                          } else {
                                              return 2;
                                          }
                                      } else {
                                          return 2;
                                      }
                                  } else {
                                      if (features[2] < -8) {
                                          if (features[0] < 14) {
                                              return 5;
                                          } else {
                                              return 2;
                                          }
                                      } else {
                                          if (features[1] < -8) {
                                              if (features[2] < -5) {
                                                  return 5;
                                              } else {
                                                  return 3;
                                              }
                                          } else {
                                              return 5;
                                          }
                                      }
                                  }
                              } else {
                                  if (features[1] < -7) {
                                      if (features[2] < -1) {
                                          return 4;
                                      } else {
                                          return 5;
                                      }
                                  } else {
                                      return 3;
                                  }
                              }
                          }
                      } else {
                          if (features[1] < 1) {
                              if (features[0] < -1) {
                                  if (features[2] < -3) {
                                      if (features[0] < -4) {
                                          if (features[0] < -6) {
                                              return 2;
                                          } else {
                                              return 3;
                                          }
                                      } else {
                                          if (features[2] < -7) {
                                              return 2;
                                          } else {
                                              if (features[2] < -4) {
                                                  if (features[0] < -3) {
                                                      return 1;
                                                  } else {
                                                      if (features[0] < -3) {
                                                          if (features[1] < 0) {
                                                              return 2;
                                                          } else {
                                                              return 0;
                                                          }
                                                      } else {
                                                          return 0;
                                                      }
                                                  }
                                              } else {
                                                  return 2;
                                              }
                                          }
                                      }
                                  } else {
                                      if (features[0] < -6) {
                                          if (features[1] < -1) {
                                              return 3;
                                          } else {
                                              if (features[2] < -1) {
                                                  return 1;
                                              } else {
                                                  return 2;
                                              }
                                          }
                                      } else {
                                          if (features[0] < -5) {
                                              return 0;
                                          } else {
                                              if (features[0] < -2) {
                                                  if (features[0] < -2) {
                                                      if (features[0] < -2) {
                                                          if (features[1] < 0) {
                                                              return 1;
                                                          } else {
                                                              if (features[1] < 0) {
                                                                  return 3;
                                                              } else {
                                                                  if (features[0] < -3) {
                                                                      if (features[2] < -1) {
                                                                          if (features[1] < 0) {
                                                                              return 1;
                                                                          } else {
                                                                              if (features[1] < 0) {
                                                                                  return 4;
                                                                              } else {
                                                                                  return 1;
                                                                              }
                                                                          }
                                                                      } else {
                                                                          return 0;
                                                                      }
                                                                  } else {
                                                                      if (features[0] < -2) {
                                                                          return 2;
                                                                      } else {
                                                                          return 1;
                                                                      }
                                                                  }
                                                              }
                                                          }
                                                      } else {
                                                          if (features[1] < 0) {
                                                              return 2;
                                                          } else {
                                                              return 0;
                                                          }
                                                      }
                                                  } else {
                                                      return 1;
                                                  }
                                              } else {
                                                  return 0;
                                              }
                                          }
                                      }
                                  }
                              } else {
                                  if (features[2] < -1) {
                                      if (features[0] < 0) {
                                          if (features[1] < -2) {
                                              if (features[1] < -3) {
                                                  return 2;
                                              } else {
                                                  return 1;
                                              }
                                          } else {
                                              if (features[1] < 0) {
                                                  if (features[1] < -1) {
                                                      if (features[1] < -1) {
                                                          return 2;
                                                      } else {
                                                          return 1;
                                                      }
                                                  } else {
                                                      return 2;
                                                  }
                                              } else {
                                                  if (features[1] < 0) {
                                                      return 0;
                                                  } else {
